################################################################################
# Neural network connection values (weights and biases).
################################################################################
# Col  Name       Description
################################################################################
# 1    connection Neural network connection value.
# 2    t          Connection type (a = weight, b = bias).
# 3    index      Index enumerating weights.
# 4    l_s        Starting point layer (end point layer for biases).
# 5    n_s        Starting point neuron in starting layer (end point neuron for biases).
# 6    l_e        End point layer.
# 7    n_e        End point neuron in end layer.
################################################################################
#                      1 2         3     4     5     6     7
#             connection t     index   l_s   n_s   l_e   n_e
############################################################
  3.2380092360607979E+00 a         1     0     1     1     1
 -1.9328073945468180E+01 a         2     0     1     1     2
 -3.8186304653636802E+00 a         3     0     1     1     3
 -9.2949097909718645E+00 a         4     0     1     1     4
  2.9094181408235600E+00 a         5     0     1     1     5
 -1.0155553054758879E+01 a         6     0     1     1     6
  5.3526157050280014E+00 a         7     0     1     1     7
  2.1443081867346625E-01 a         8     0     1     1     8
  1.4476243908016494E+01 a         9     0     1     1     9
  7.5882206929812037E+00 a        10     0     1     1    10
  3.1558132803267913E+00 a        11     0     1     1    11
  2.6798651901277526E+00 a        12     0     1     1    12
  7.1666770519127159E+00 a        13     0     1     1    13
 -1.0009120625393025E-01 a        14     0     1     1    14
  1.0987101088429199E+00 a        15     0     1     1    15
  1.3791166863235114E+00 a        16     0     2     1     1
  1.3774308630575009E+01 a        17     0     2     1     2
  1.0669625783829385E+01 a        18     0     2     1     3
  8.8893310558998948E+00 a        19     0     2     1     4
  5.3331322899907061E+00 a        20     0     2     1     5
 -3.8410936473492789E+00 a        21     0     2     1     6
 -5.8746400018179550E+00 a        22     0     2     1     7
 -7.6406989857065710E+00 a        23     0     2     1     8
 -6.3482527221389802E+00 a        24     0     2     1     9
 -9.4571611169093046E+00 a        25     0     2     1    10
  2.6482914713363015E+00 a        26     0     2     1    11
 -5.3080633629501772E+00 a        27     0     2     1    12
 -1.3038510857770504E+01 a        28     0     2     1    13
  3.3662575273635085E+00 a        29     0     2     1    14
 -5.7656406581282020E+00 a        30     0     2     1    15
 -3.7743581744218315E+00 a        31     0     3     1     1
 -1.3117518163527727E+01 a        32     0     3     1     2
 -3.3864333553019130E+00 a        33     0     3     1     3
 -3.9351360652659237E+00 a        34     0     3     1     4
 -1.5341607308535373E+01 a        35     0     3     1     5
 -2.8524451736165815E+00 a        36     0     3     1     6
  6.9550906314149676E+00 a        37     0     3     1     7
  6.7874410718600124E+00 a        38     0     3     1     8
  1.1515784738374634E+01 a        39     0     3     1     9
  6.0591959639792954E+00 a        40     0     3     1    10
 -4.1660109465974055E-01 a        41     0     3     1    11
  3.0289518530563040E+00 a        42     0     3     1    12
  1.4570249219747620E+01 a        43     0     3     1    13
 -8.6238652222899130E+00 a        44     0     3     1    14
  1.3563531028519270E+01 a        45     0     3     1    15
  7.6595381395257265E+00 a        46     0     4     1     1
 -1.8862751003755804E+00 a        47     0     4     1     2
 -2.2120080490960743E+00 a        48     0     4     1     3
  2.1788336791191467E+00 a        49     0     4     1     4
  1.0551639855158824E+01 a        50     0     4     1     5
 -4.6017839010925439E+00 a        51     0     4     1     6
 -1.3109706120610227E+01 a        52     0     4     1     7
 -2.6566561282321132E+01 a        53     0     4     1     8
  7.8256023471941969E+00 a        54     0     4     1     9
 -5.3892723932502280E+00 a        55     0     4     1    10
  4.1667414167181489E+00 a        56     0     4     1    11
 -8.4936065057458293E-02 a        57     0     4     1    12
 -2.0560467036098956E+01 a        58     0     4     1    13
  1.4421607284680318E+00 a        59     0     4     1    14
  3.3617350802275436E-03 a        60     0     4     1    15
  5.6799475235212027E-01 a        61     0     5     1     1
  1.1150077910220755E+00 a        62     0     5     1     2
  1.3901914716630760E+01 a        63     0     5     1     3
 -9.3799680702655355E+00 a        64     0     5     1     4
  4.6653429298244458E+00 a        65     0     5     1     5
  2.9887565327593064E+00 a        66     0     5     1     6
  1.0387871917243711E+01 a        67     0     5     1     7
  2.4340495519877329E+01 a        68     0     5     1     8
 -2.2854268242835323E+00 a        69     0     5     1     9
 -1.7506360491704835E+00 a        70     0     5     1    10
 -1.4581925150031653E+01 a        71     0     5     1    11
  5.1111808114302821E+00 a        72     0     5     1    12
  1.0604255796366244E+01 a        73     0     5     1    13
 -5.5699682677753879E+00 a        74     0     5     1    14
 -8.1334858643263388E+00 a        75     0     5     1    15
 -3.3674310997710455E-01 a        76     0     6     1     1
 -1.0306262635360415E+01 a        77     0     6     1     2
 -7.8401631399796941E+00 a        78     0     6     1     3
  1.2109207598234217E+01 a        79     0     6     1     4
 -1.1954672393457839E+01 a        80     0     6     1     5
  3.7215943478528755E+00 a        81     0     6     1     6
 -1.2155973372597050E+01 a        82     0     6     1     7
 -3.7316486410741646E+01 a        83     0     6     1     8
  2.1575604137609869E+01 a        84     0     6     1     9
  1.0261508162264843E+00 a        85     0     6     1    10
  1.7095270944195867E+01 a        86     0     6     1    11
 -5.1263944626899667E+00 a        87     0     6     1    12
 -1.5410745583164719E+01 a        88     0     6     1    13
  9.1915956085214001E-01 a        89     0     6     1    14
  1.8300494333671168E+01 a        90     0     6     1    15
  7.0633153094300871E+00 a        91     0     7     1     1
  2.7524773022981317E+00 a        92     0     7     1     2
  1.0456335816724811E-01 a        93     0     7     1     3
 -9.9600792033296166E+00 a        94     0     7     1     4
  1.7564370554450885E+01 a        95     0     7     1     5
 -2.7641063245951782E+00 a        96     0     7     1     6
  1.8452473839853754E+00 a        97     0     7     1     7
  1.7676055366204572E+01 a        98     0     7     1     8
 -9.7928782408527688E+00 a        99     0     7     1     9
 -1.3696467394211262E+00 a       100     0     7     1    10
 -1.5796975616338127E+01 a       101     0     7     1    11
  2.7160308751440461E+00 a       102     0     7     1    12
  4.2697502564390071E+00 a       103     0     7     1    13
  1.5553146295573628E+00 a       104     0     7     1    14
 -1.4265215211041431E+01 a       105     0     7     1    15
 -2.3049215305095774E+00 a       106     0     8     1     1
  1.4202354709680107E+00 a       107     0     8     1     2
  3.0129256443863923E+00 a       108     0     8     1     3
  1.8360898923776066E+00 a       109     0     8     1     4
 -2.5993717776193401E+00 a       110     0     8     1     5
  2.5410301803519273E+00 a       111     0     8     1     6
 -1.5292293704717139E+00 a       112     0     8     1     7
 -4.7446697208404949E+00 a       113     0     8     1     8
  1.0999263694912544E+01 a       114     0     8     1     9
 -6.9509331043502887E-01 a       115     0     8     1    10
  1.3059740893229810E+00 a       116     0     8     1    11
 -6.0348817199674742E-01 a       117     0     8     1    12
 -2.9047454096925200E+00 a       118     0     8     1    13
 -5.8184497967795373E-02 a       119     0     8     1    14
  3.8369275758995731E+00 a       120     0     8     1    15
 -3.2948179272269549E+01 a       121     0     9     1     1
  2.0879259784504292E+01 a       122     0     9     1     2
  6.7554131165834779E+00 a       123     0     9     1     3
 -1.2482794775856188E+01 a       124     0     9     1     4
 -1.3613573982838929E+01 a       125     0     9     1     5
 -8.3714908720120302E+00 a       126     0     9     1     6
  1.3169995274235642E+01 a       127     0     9     1     7
 -1.1913799295748682E+01 a       128     0     9     1     8
  3.2045654166744548E+01 a       129     0     9     1     9
 -2.6642384439958626E+01 a       130     0     9     1    10
  8.2087156410578501E+00 a       131     0     9     1    11
 -3.3501788228353405E+01 a       132     0     9     1    12
  2.7720531583219348E+01 a       133     0     9     1    13
  3.3359196496785493E+01 a       134     0     9     1    14
 -3.3325032334587505E+01 a       135     0     9     1    15
 -6.2778626361990186E-01 a       136     0    10     1     1
  1.4413491080774573E+01 a       137     0    10     1     2
  1.6731349097847190E+01 a       138     0    10     1     3
  3.3551603930137404E+00 a       139     0    10     1     4
 -1.1673301953731062E+01 a       140     0    10     1     5
 -1.6359002199901049E+01 a       141     0    10     1     6
 -2.8923825328316477E+00 a       142     0    10     1     7
  1.1319136491377986E+01 a       143     0    10     1     8
  1.1329571069044906E+01 a       144     0    10     1     9
 -3.4810651351665443E+00 a       145     0    10     1    10
  1.9770590152707468E-01 a       146     0    10     1    11
  2.6794927559824671E+01 a       147     0    10     1    12
 -2.3640131487458023E+00 a       148     0    10     1    13
  2.5247705573678125E+01 a       149     0    10     1    14
 -1.3365091529918530E+01 a       150     0    10     1    15
 -1.8917859734941533E+01 a       151     0    11     1     1
 -3.6975864269897052E+01 a       152     0    11     1     2
 -2.7136239506770515E+01 a       153     0    11     1     3
 -3.1038267675515836E+01 a       154     0    11     1     4
 -1.5077864341885077E+00 a       155     0    11     1     5
 -8.9060295339609770E+00 a       156     0    11     1     6
  5.9926435692507329E+00 a       157     0    11     1     7
 -1.8924722514295095E+01 a       158     0    11     1     8
  7.3144994013467510E+00 a       159     0    11     1     9
  2.3369699018163992E+01 a       160     0    11     1    10
 -2.7567309557034640E+01 a       161     0    11     1    11
  2.3544961842167851E+01 a       162     0    11     1    12
  8.8608121783886915E+00 a       163     0    11     1    13
  1.4946931392996001E+01 a       164     0    11     1    14
 -1.9770215783184778E+01 a       165     0    11     1    15
 -3.1421290474928231E+01 a       166     0    12     1     1
  2.0542108185712276E+01 a       167     0    12     1     2
 -1.2472417292813576E+01 a       168     0    12     1     3
 -4.8112860198978964E+01 a       169     0    12     1     4
  2.8301408358141682E+01 a       170     0    12     1     5
 -3.5542843954188598E+01 a       171     0    12     1     6
 -1.2803710810217432E+01 a       172     0    12     1     7
  6.2524204542655696E+01 a       173     0    12     1     8
 -4.9516620820157433E+00 a       174     0    12     1     9
 -1.6960663734297274E+01 a       175     0    12     1    10
 -1.1416128007485462E+01 a       176     0    12     1    11
  1.3655142799440821E+01 a       177     0    12     1    12
 -9.5804842398338153E-01 a       178     0    12     1    13
  7.1222053700948171E+00 a       179     0    12     1    14
  4.6434438767761250E+01 a       180     0    12     1    15
  2.8193984138435444E+00 a       181     0    13     1     1
  1.6532112908551063E+01 a       182     0    13     1     2
  1.2402954799181160E+01 a       183     0    13     1     3
  4.4378202478467630E+00 a       184     0    13     1     4
 -8.7208054330481470E+00 a       185     0    13     1     5
  1.5361896635986525E+01 a       186     0    13     1     6
  5.8578140219677213E+00 a       187     0    13     1     7
 -1.7792787763197250E+01 a       188     0    13     1     8
  1.5854820348955181E+01 a       189     0    13     1     9
 -2.6318977204865291E+01 a       190     0    13     1    10
 -2.5589723944981868E+00 a       191     0    13     1    11
 -1.5942444998038237E+01 a       192     0    13     1    12
  2.5732623545016899E+01 a       193     0    13     1    13
 -4.2116482050038584E+01 a       194     0    13     1    14
  7.4410300164888818E+00 a       195     0    13     1    15
  2.1197947376599018E+01 a       196     0    14     1     1
 -2.0940988538424303E+01 a       197     0    14     1     2
 -3.1657399796934543E-01 a       198     0    14     1     3
  4.2540101323744921E+01 a       199     0    14     1     4
 -1.8250507967860386E+01 a       200     0    14     1     5
  1.4326867293825240E+01 a       201     0    14     1     6
  9.6684508849735877E+00 a       202     0    14     1     7
 -1.7738848147739532E+01 a       203     0    14     1     8
  2.1364060418509947E+01 a       204     0    14     1     9
  2.2059620773212803E+01 a       205     0    14     1    10
 -7.9929901849203178E-01 a       206     0    14     1    11
  3.5173170611117925E+01 a       207     0    14     1    12
 -1.2954218693409493E+01 a       208     0    14     1    13
  8.7187619879612441E+00 a       209     0    14     1    14
 -2.4536942950780514E+01 a       210     0    14     1    15
  2.3236286776838785E+01 a       211     0    15     1     1
  1.5027381714400937E+01 a       212     0    15     1     2
  1.3837291979580874E+01 a       213     0    15     1     3
  2.6116295855010808E+01 a       214     0    15     1     4
  5.9629434639980818E+00 a       215     0    15     1     5
  8.1105774028477473E+00 a       216     0    15     1     6
 -1.2330099994332073E+00 a       217     0    15     1     7
  2.5787500339357791E+01 a       218     0    15     1     8
 -1.1366957798632798E+01 a       219     0    15     1     9
 -1.9609294605359426E+00 a       220     0    15     1    10
  2.1152787690523056E+01 a       221     0    15     1    11
 -2.3591047348580467E+00 a       222     0    15     1    12
 -1.5744196814029030E+01 a       223     0    15     1    13
 -1.6194100666216702E+01 a       224     0    15     1    14
  1.7178096453255289E+01 a       225     0    15     1    15
  1.0925928995729617E+00 a       226     0    16     1     1
 -4.5897032325281657E+00 a       227     0    16     1     2
 -1.8286694234380320E+01 a       228     0    16     1     3
 -1.5588780809032155E+01 a       229     0    16     1     4
  6.5975174242520644E+00 a       230     0    16     1     5
  3.0852005480504243E+01 a       231     0    16     1     6
  7.8948858117160894E+00 a       232     0    16     1     7
 -9.9538782637532570E+00 a       233     0    16     1     8
 -3.6311001180156751E+01 a       234     0    16     1     9
 -1.8908041583991526E+01 a       235     0    16     1    10
 -2.5691589265978312E+00 a       236     0    16     1    11
 -6.1151800127063922E+01 a       237     0    16     1    12
 -1.9443843864882549E+01 a       238     0    16     1    13
 -1.4877638582175875E+01 a       239     0    16     1    14
  8.9360655317385600E+00 a       240     0    16     1    15
  3.7794271020768844E-01 a       241     0    17     1     1
 -4.3789489493599323E+00 a       242     0    17     1     2
 -3.3565243791850614E+00 a       243     0    17     1     3
 -1.8551059361295772E+00 a       244     0    17     1     4
 -2.9540263036765295E+00 a       245     0    17     1     5
 -6.5347717274431671E+00 a       246     0    17     1     6
  1.7420142303225690E+00 a       247     0    17     1     7
 -3.9320747047716815E+00 a       248     0    17     1     8
 -2.2123772953409429E+00 a       249     0    17     1     9
  3.9696072366143094E+00 a       250     0    17     1    10
  1.3573880196066924E+01 a       251     0    17     1    11
 -9.9683887370890722E-01 a       252     0    17     1    12
 -5.3652866963533462E-02 a       253     0    17     1    13
  5.5457013336961696E+00 a       254     0    17     1    14
  4.4475774202421299E+00 a       255     0    17     1    15
  3.4620194874440497E+00 a       256     0    18     1     1
 -5.1787487245051738E+00 a       257     0    18     1     2
 -1.3979683506713769E+00 a       258     0    18     1     3
  2.4104693944641835E+00 a       259     0    18     1     4
 -2.4950291399267952E+00 a       260     0    18     1     5
 -8.1762166258328985E+00 a       261     0    18     1     6
 -1.2070300461725871E+00 a       262     0    18     1     7
 -7.6669319900990107E+00 a       263     0    18     1     8
  2.6492299741509280E+00 a       264     0    18     1     9
  2.0356187339887146E+00 a       265     0    18     1    10
  2.5131373024172913E+01 a       266     0    18     1    11
 -6.3339108419460031E+00 a       267     0    18     1    12
  9.0379611539654139E+00 a       268     0    18     1    13
  5.9877268274440310E+00 a       269     0    18     1    14
 -1.2888010739362741E+00 a       270     0    18     1    15
 -2.9331411996601897E+00 a       271     0    19     1     1
 -1.0192096351147919E+00 a       272     0    19     1     2
 -9.4344302276882464E-01 a       273     0    19     1     3
 -1.4982981323239097E+00 a       274     0    19     1     4
  9.0359597692730775E-01 a       275     0    19     1     5
 -5.6987836503152267E-01 a       276     0    19     1     6
  3.7992137270970935E-02 a       277     0    19     1     7
 -5.1580574366568488E-01 a       278     0    19     1     8
  1.2419106004115452E+00 a       279     0    19     1     9
 -4.1640059282256718E+00 a       280     0    19     1    10
 -2.8196825211314098E+00 a       281     0    19     1    11
  1.4831396719960914E+00 a       282     0    19     1    12
  5.7947558159723433E-01 a       283     0    19     1    13
 -1.1382961842272146E+00 a       284     0    19     1    14
 -2.0884198306669433E+00 a       285     0    19     1    15
 -1.7826047128286155E+00 a       286     0    20     1     1
 -4.5744580355212499E+00 a       287     0    20     1     2
 -2.5205257233934288E+00 a       288     0    20     1     3
  5.4438886955661010E+00 a       289     0    20     1     4
 -7.5278274862065553E+00 a       290     0    20     1     5
 -3.6776750697808489E+00 a       291     0    20     1     6
  3.4985128549641957E+00 a       292     0    20     1     7
 -7.0923494479043097E+00 a       293     0    20     1     8
 -7.7581752400048938E+00 a       294     0    20     1     9
  8.2091120734422152E+00 a       295     0    20     1    10
 -3.5105998601217281E-01 a       296     0    20     1    11
  3.1065635958558455E+00 a       297     0    20     1    12
 -4.4282487764412286E+00 a       298     0    20     1    13
 -5.8183209494184251E-01 a       299     0    20     1    14
  2.0459349320309932E+00 a       300     0    20     1    15
  7.3302789836430851E+00 a       301     0    21     1     1
 -2.1309658139870894E+01 a       302     0    21     1     2
 -9.9648900188984175E+00 a       303     0    21     1     3
 -8.5767806725585718E+00 a       304     0    21     1     4
 -8.2228335874730007E-01 a       305     0    21     1     5
  3.0156812077014362E+01 a       306     0    21     1     6
  2.0503219202649085E+01 a       307     0    21     1     7
 -7.1085397660739114E+00 a       308     0    21     1     8
 -2.1411398799235929E+01 a       309     0    21     1     9
  2.5634006096747736E+01 a       310     0    21     1    10
  2.2513007611765552E+01 a       311     0    21     1    11
  1.5648248697903581E+01 a       312     0    21     1    12
 -1.9734152320687144E+00 a       313     0    21     1    13
  2.9279247613382481E+01 a       314     0    21     1    14
 -1.7097274990946307E+01 a       315     0    21     1    15
 -4.6290994498999485E+00 a       316     0    22     1     1
  5.5701293010144539E+00 a       317     0    22     1     2
 -9.3834744279032751E+00 a       318     0    22     1     3
 -2.2263230882498835E+01 a       319     0    22     1     4
  1.1818274119171093E+01 a       320     0    22     1     5
 -8.2842096016742897E+00 a       321     0    22     1     6
  4.3707050980610314E+00 a       322     0    22     1     7
  7.9230208249800098E+00 a       323     0    22     1     8
 -5.6884813249801001E+00 a       324     0    22     1     9
  1.2225315160376358E+01 a       325     0    22     1    10
  1.9781292699791628E+01 a       326     0    22     1    11
 -4.2757898915448692E+01 a       327     0    22     1    12
  2.8220855784842207E+01 a       328     0    22     1    13
 -1.4446862653077101E+01 a       329     0    22     1    14
  2.0375680333401114E+01 a       330     0    22     1    15
 -1.1889542650619942E+01 a       331     0    23     1     1
 -6.8201308462432761E+00 a       332     0    23     1     2
 -4.8333248606011487E+00 a       333     0    23     1     3
 -9.9005163653008221E+00 a       334     0    23     1     4
 -5.6068942127114791E+00 a       335     0    23     1     5
  3.6824172299204361E-01 a       336     0    23     1     6
  2.1001506347148695E+01 a       337     0    23     1     7
 -1.4259615825252133E+01 a       338     0    23     1     8
 -1.2614343484220363E+01 a       339     0    23     1     9
 -1.1556698577486625E+01 a       340     0    23     1    10
 -4.5463541145631220E-01 a       341     0    23     1    11
 -3.5023800257276605E+01 a       342     0    23     1    12
 -3.0605087781513829E+00 a       343     0    23     1    13
 -3.6735482413550656E+01 a       344     0    23     1    14
  8.7959402806158717E+00 a       345     0    23     1    15
 -8.3486526128842691E+00 a       346     0    24     1     1
  1.0385858313939856E+01 a       347     0    24     1     2
  5.5141340791845836E+00 a       348     0    24     1     3
  4.9741535880922534E+01 a       349     0    24     1     4
 -7.7320479231060588E+00 a       350     0    24     1     5
  8.2126792440009935E-02 a       351     0    24     1     6
  5.2133905129090241E+00 a       352     0    24     1     7
  1.7996609671551312E+01 a       353     0    24     1     8
  1.3894528284596980E+01 a       354     0    24     1     9
 -1.9412352986408280E+01 a       355     0    24     1    10
 -8.1997457343671023E+00 a       356     0    24     1    11
 -1.2134437020505844E+01 a       357     0    24     1    12
  8.1762710361173188E+00 a       358     0    24     1    13
 -1.4023988468798386E+01 a       359     0    24     1    14
 -1.3748084282255546E+01 a       360     0    24     1    15
  1.3713016816645778E+01 a       361     0    25     1     1
 -9.5315699701040462E+00 a       362     0    25     1     2
 -4.2592585380865309E+00 a       363     0    25     1     3
  2.0059354307243566E+01 a       364     0    25     1     4
 -3.7519706753755369E+00 a       365     0    25     1     5
  1.1411880468715415E+01 a       366     0    25     1     6
 -8.4809542057871266E+00 a       367     0    25     1     7
  3.1022043012315216E+01 a       368     0    25     1     8
 -8.7832093356235994E+00 a       369     0    25     1     9
  2.0842504373402594E+01 a       370     0    25     1    10
  1.1453678875147812E+01 a       371     0    25     1    11
  5.0312044271000410E+01 a       372     0    25     1    12
 -6.8935385525061585E+00 a       373     0    25     1    13
  4.4573558078888709E+01 a       374     0    25     1    14
 -1.8433168711216414E+01 a       375     0    25     1    15
  1.0469460322589047E+01 a       376     0    26     1     1
 -1.4723346701584726E+01 a       377     0    26     1     2
 -1.3393708006013591E-01 a       378     0    26     1     3
 -2.9942972081249547E+01 a       379     0    26     1     4
  8.1514886370183426E+00 a       380     0    26     1     5
 -1.0640015356872043E+01 a       381     0    26     1     6
 -6.7021209827329509E+00 a       382     0    26     1     7
  1.5866078435185116E+00 a       383     0    26     1     8
 -9.4070964237625478E+00 a       384     0    26     1     9
  2.2739812956443433E+01 a       385     0    26     1    10
  1.9602866128286870E+01 a       386     0    26     1    11
  6.1286003122386106E+00 a       387     0    26     1    12
  2.5810589522270835E+01 a       388     0    26     1    13
 -6.4801561529264271E+00 a       389     0    26     1    14
  1.5733096294206501E+01 a       390     0    26     1    15
 -1.7392388946226681E+01 a       391     0    27     1     1
  3.0027237528541846E+01 a       392     0    27     1     2
 -7.3684655006528388E-01 a       393     0    27     1     3
  1.5841421228742044E+01 a       394     0    27     1     4
 -5.7642206962220648E+00 a       395     0    27     1     5
 -3.4741215974798585E+01 a       396     0    27     1     6
 -1.9861121264951414E+01 a       397     0    27     1     7
  1.0400003068464901E+01 a       398     0    27     1     8
 -3.6875185538811688E+00 a       399     0    27     1     9
 -2.4675838327861012E+01 a       400     0    27     1    10
 -1.6201660341043578E+01 a       401     0    27     1    11
 -2.3883132505025322E+00 a       402     0    27     1    12
 -8.1473689176531590E+00 a       403     0    27     1    13
 -6.7464064221697351E+00 a       404     0    27     1    14
  1.9653359875754435E+00 a       405     0    27     1    15
  3.0611442461068354E+01 a       406     0    28     1     1
 -2.6907971211343941E+01 a       407     0    28     1     2
  1.4415731151083341E+01 a       408     0    28     1     3
  2.2889201402936365E+01 a       409     0    28     1     4
 -7.1810876933318655E+00 a       410     0    28     1     5
  9.0091315836697632E+00 a       411     0    28     1     6
  1.2830301174052456E+01 a       412     0    28     1     7
 -5.8431316473664168E+01 a       413     0    28     1     8
 -1.5075135373732529E+01 a       414     0    28     1     9
  2.3112497845361300E+01 a       415     0    28     1    10
 -8.0771841678554139E+00 a       416     0    28     1    11
  2.5559372610249849E+01 a       417     0    28     1    12
 -1.7175679412540319E+00 a       418     0    28     1    13
 -3.7919652183205148E+00 a       419     0    28     1    14
 -3.3814801162654270E+01 a       420     0    28     1    15
  3.3224508862820336E+01 a       421     0    29     1     1
  9.9112665268400431E+00 a       422     0    29     1     2
  3.9401256508681448E+00 a       423     0    29     1     3
  1.5724859190162462E+01 a       424     0    29     1     4
  2.8981355160913875E+01 a       425     0    29     1     5
  1.9976349930751756E+01 a       426     0    29     1     6
 -3.2877308301043051E+01 a       427     0    29     1     7
  3.8008546668373178E+01 a       428     0    29     1     8
 -2.4646893690351039E+01 a       429     0    29     1     9
 -7.8422278739909252E+00 a       430     0    29     1    10
 -2.9624633982179649E+01 a       431     0    29     1    11
  1.8655536845870344E+01 a       432     0    29     1    12
 -3.9446673100328987E+01 a       433     0    29     1    13
 -2.0575393671643898E+01 a       434     0    29     1    14
  1.7418208444517269E+01 a       435     0    29     1    15
 -3.2558543946521254E+01 a       436     0    30     1     1
  1.0090749000611009E+01 a       437     0    30     1     2
 -1.4318423804411214E+01 a       438     0    30     1     3
 -1.1488090267795517E+01 a       439     0    30     1     4
 -5.7570407507019794E-01 a       440     0    30     1     5
  8.8907124442224230E+00 a       441     0    30     1     6
 -1.4780155280147190E+01 a       442     0    30     1     7
  5.6103256135813417E-01 a       443     0    30     1     8
 -1.5649966664219683E+01 a       444     0    30     1     9
  1.4410179185490369E+01 a       445     0    30     1    10
 -3.8397504885724558E+01 a       446     0    30     1    11
  6.6356044581807598E+00 a       447     0    30     1    12
 -2.6421793482307073E+01 a       448     0    30     1    13
 -1.0228722556234304E+01 a       449     0    30     1    14
  2.7454621193462000E+01 a       450     0    30     1    15
 -6.2495106888562617E+00 a       451     0    31     1     1
  2.0104388141270540E+01 a       452     0    31     1     2
  1.3583803153433188E+01 a       453     0    31     1     3
 -8.7085804572506986E-01 a       454     0    31     1     4
 -1.0340391100294212E+01 a       455     0    31     1     5
  2.4859221106108353E-01 a       456     0    31     1     6
  9.5985838940437562E-01 a       457     0    31     1     7
 -1.5441381611921845E+01 a       458     0    31     1     8
  9.5444836656683574E+00 a       459     0    31     1     9
  1.1365372591790780E-01 a       460     0    31     1    10
  5.9141984009409487E+00 a       461     0    31     1    11
 -2.1722592560182676E+01 a       462     0    31     1    12
  1.5170026837967715E+01 a       463     0    31     1    13
  1.5378534718592256E+01 a       464     0    31     1    14
  1.0884460255103892E-01 a       465     0    31     1    15
  5.0409087079218118E+00 a       466     0    32     1     1
  9.5770839891512356E+00 a       467     0    32     1     2
  1.3053919135353793E+01 a       468     0    32     1     3
 -6.4112708523913042E+00 a       469     0    32     1     4
  1.6524604127534590E+00 a       470     0    32     1     5
  5.7964373852701243E+00 a       471     0    32     1     6
 -4.8308429800898480E+00 a       472     0    32     1     7
  1.1152182907556751E+01 a       473     0    32     1     8
  2.3165005814342997E+01 a       474     0    32     1     9
 -1.6765785946891501E+01 a       475     0    32     1    10
  5.9601613321831133E+00 a       476     0    32     1    11
  2.9920889990179598E+00 a       477     0    32     1    12
  1.0801424264350278E+01 a       478     0    32     1    13
  6.7727871828589956E+00 a       479     0    32     1    14
 -2.9002290240863395E+00 a       480     0    32     1    15
 -1.3260491421453651E+00 b       481     1     1
  2.9372869574000304E-01 b       482     1     2
 -4.0992272256263212E-01 b       483     1     3
  2.0744918422037038E+00 b       484     1     4
 -4.7901447358367921E+00 b       485     1     5
 -6.9606927271828967E-01 b       486     1     6
  1.1272146331424093E-01 b       487     1     7
 -3.7171518007475535E+00 b       488     1     8
 -7.7604145591080149E+00 b       489     1     9
 -5.1147859530347999E-02 b       490     1    10
 -3.9387044949595400E+00 b       491     1    11
  1.8710193078266663E-01 b       492     1    12
 -3.4531452831799099E+00 b       493     1    13
  1.5504284999146256E+00 b       494     1    14
 -2.8819415420400905E+00 b       495     1    15
  2.7216934587584225E+00 a       496     1     1     2     1
  8.9777231283936565E-01 a       497     1     1     2     2
  1.4959858467913336E+00 a       498     1     1     2     3
  1.0183971169351635E+00 a       499     1     1     2     4
  1.8709452641452151E+00 a       500     1     1     2     5
  2.4046200421736232E+00 a       501     1     1     2     6
 -2.3979008540592632E+00 a       502     1     1     2     7
 -1.3567410768036983E+00 a       503     1     1     2     8
 -6.6148418495169476E+00 a       504     1     1     2     9
  4.3126977127984739E-01 a       505     1     1     2    10
  2.4064930772778248E+00 a       506     1     1     2    11
 -4.6684719360416604E-01 a       507     1     1     2    12
  3.3742903415195019E-01 a       508     1     1     2    13
 -8.6724923953351329E-01 a       509     1     1     2    14
  5.3861279719215442E-02 a       510     1     1     2    15
 -1.7726575567944374E+00 a       511     1     2     2     1
  1.0908641899506897E+00 a       512     1     2     2     2
 -1.1405186681990498E+00 a       513     1     2     2     3
  8.5290642164487829E-01 a       514     1     2     2     4
  1.9218942131461145E+00 a       515     1     2     2     5
 -3.4894658995660292E-02 a       516     1     2     2     6
  7.9636375186955755E-01 a       517     1     2     2     7
  1.6457529283753101E+00 a       518     1     2     2     8
 -4.2383561166769189E-02 a       519     1     2     2     9
  6.2728962095350183E-01 a       520     1     2     2    10
 -3.5161576444463841E-02 a       521     1     2     2    11
 -6.7479001212345735E-01 a       522     1     2     2    12
  5.9515863366257216E-01 a       523     1     2     2    13
 -1.1375489749256713E+00 a       524     1     2     2    14
 -2.3644850677449838E-01 a       525     1     2     2    15
 -3.1212420970035515E+00 a       526     1     3     2     1
 -1.1338990235700284E+00 a       527     1     3     2     2
  1.6637932965285003E+00 a       528     1     3     2     3
  4.0772109779426184E+00 a       529     1     3     2     4
 -1.8650814627966201E+00 a       530     1     3     2     5
 -2.6110427544652404E+00 a       531     1     3     2     6
  1.1669064867442183E+00 a       532     1     3     2     7
 -5.9371281915319749E-02 a       533     1     3     2     8
  8.6653689571726744E-01 a       534     1     3     2     9
  4.1214521357035966E-01 a       535     1     3     2    10
 -4.2758607529409498E-01 a       536     1     3     2    11
  2.1107443770131608E-02 a       537     1     3     2    12
 -1.3901686217075923E-01 a       538     1     3     2    13
 -5.3960410649631518E-01 a       539     1     3     2    14
 -1.2989979596938139E+00 a       540     1     3     2    15
  3.2026299332940256E+00 a       541     1     4     2     1
 -9.5924841830643648E-02 a       542     1     4     2     2
 -1.5387369133702304E+00 a       543     1     4     2     3
 -4.1643884645069802E+00 a       544     1     4     2     4
  2.8513259608571921E+00 a       545     1     4     2     5
  1.3874230573140305E+00 a       546     1     4     2     6
  7.1651868573766531E-01 a       547     1     4     2     7
  9.2370443827550042E-01 a       548     1     4     2     8
 -1.7001765851047490E+00 a       549     1     4     2     9
  1.1925538032718888E+00 a       550     1     4     2    10
  1.7186756345383920E+00 a       551     1     4     2    11
 -1.3295762096664527E+00 a       552     1     4     2    12
  2.0061071004719122E+00 a       553     1     4     2    13
  3.7910513948965352E-01 a       554     1     4     2    14
  9.5453072968040453E-01 a       555     1     4     2    15
 -1.0051189625876107E+00 a       556     1     5     2     1
  2.6065942273654819E+00 a       557     1     5     2     2
 -9.7218159327756670E-01 a       558     1     5     2     3
 -5.1034387971346158E+00 a       559     1     5     2     4
 -9.8782996945279966E-01 a       560     1     5     2     5
 -2.1389710731602625E+00 a       561     1     5     2     6
  1.6373073510987797E+00 a       562     1     5     2     7
  1.6611284749266420E+00 a       563     1     5     2     8
  4.4599992214135717E+00 a       564     1     5     2     9
  9.1438602677663983E-01 a       565     1     5     2    10
 -2.2919892453257433E+00 a       566     1     5     2    11
 -2.9862205350813729E+00 a       567     1     5     2    12
  2.1320504394493405E+00 a       568     1     5     2    13
 -2.3661317453836924E-02 a       569     1     5     2    14
 -1.2737649884517226E+00 a       570     1     5     2    15
 -8.3295157458698625E+00 a       571     1     6     2     1
  1.5185026688873877E+00 a       572     1     6     2     2
  1.3878296018851342E+00 a       573     1     6     2     3
 -1.9754383337618791E+00 a       574     1     6     2     4
 -6.3719090903740161E-01 a       575     1     6     2     5
 -2.8001408692305376E+00 a       576     1     6     2     6
  8.1375743489235108E-01 a       577     1     6     2     7
  2.8076243040514659E-01 a       578     1     6     2     8
  4.5262328019029558E+00 a       579     1     6     2     9
  7.8573097083808408E-01 a       580     1     6     2    10
 -1.4024815199895821E+00 a       581     1     6     2    11
 -6.3345231115613621E-01 a       582     1     6     2    12
 -7.3041773081827044E-01 a       583     1     6     2    13
 -1.2156451547677825E+00 a       584     1     6     2    14
 -1.1603352109412122E+00 a       585     1     6     2    15
 -5.0632967974641729E-01 a       586     1     7     2     1
  1.1516142464568346E+00 a       587     1     7     2     2
 -1.4719321348880952E+00 a       588     1     7     2     3
 -2.7746093616909966E+00 a       589     1     7     2     4
 -4.2299223665196362E+00 a       590     1     7     2     5
 -1.0438982212118346E+00 a       591     1     7     2     6
 -1.0042424586782008E+00 a       592     1     7     2     7
 -3.6733728823247841E-01 a       593     1     7     2     8
  1.5315286698536184E+00 a       594     1     7     2     9
  1.9836951872627562E-01 a       595     1     7     2    10
 -3.8420644727121762E-02 a       596     1     7     2    11
  2.9460934069932598E-01 a       597     1     7     2    12
 -1.4901492659969597E+00 a       598     1     7     2    13
 -1.4177501047035153E+00 a       599     1     7     2    14
 -2.9573369001990935E-01 a       600     1     7     2    15
  1.7718985944989474E+00 a       601     1     8     2     1
 -1.2887082964626659E+00 a       602     1     8     2     2
 -4.0649395773303665E-01 a       603     1     8     2     3
 -8.4352534902910570E+00 a       604     1     8     2     4
  8.9315588130554824E-01 a       605     1     8     2     5
 -3.1664205424811906E+00 a       606     1     8     2     6
  1.0650226273609933E+00 a       607     1     8     2     7
 -1.5235503577889822E+00 a       608     1     8     2     8
  8.8315016481308420E-02 a       609     1     8     2     9
 -5.4495456009525815E-02 a       610     1     8     2    10
  7.5547496163698258E-01 a       611     1     8     2    11
  1.4557972100617402E+00 a       612     1     8     2    12
 -7.2341049001336444E-01 a       613     1     8     2    13
  1.9069063583507011E+00 a       614     1     8     2    14
 -1.1728931138047101E+00 a       615     1     8     2    15
  5.9227240802988517E+00 a       616     1     9     2     1
  2.1104460015914093E+00 a       617     1     9     2     2
 -3.2217002371163459E+00 a       618     1     9     2     3
  1.0463428920135214E+00 a       619     1     9     2     4
  3.9879624370154900E+00 a       620     1     9     2     5
  3.9920089854161547E+00 a       621     1     9     2     6
  1.2652805822452582E+00 a       622     1     9     2     7
  1.2904946956887051E+00 a       623     1     9     2     8
  2.9119983624046335E+00 a       624     1     9     2     9
  4.5309576333113908E+00 a       625     1     9     2    10
 -2.1578149937612010E-01 a       626     1     9     2    11
  3.5215175377103467E+00 a       627     1     9     2    12
 -4.1944035517939371E+00 a       628     1     9     2    13
  1.1622295324301746E+00 a       629     1     9     2    14
 -5.5336150500688253E-01 a       630     1     9     2    15
 -1.1656682674309531E+00 a       631     1    10     2     1
  6.6663231602524808E-01 a       632     1    10     2     2
  1.8627905316999573E+00 a       633     1    10     2     3
  2.4644371315988015E-01 a       634     1    10     2     4
  1.7936002732409417E+00 a       635     1    10     2     5
  3.1081107462232399E-01 a       636     1    10     2     6
  2.7709854178648557E-01 a       637     1    10     2     7
 -5.9078220574657969E-01 a       638     1    10     2     8
  1.0484117826402182E+00 a       639     1    10     2     9
  1.8662412488585708E-01 a       640     1    10     2    10
 -1.5701516950603991E+00 a       641     1    10     2    11
  4.1913765474835218E-02 a       642     1    10     2    12
  2.6192479594432907E+00 a       643     1    10     2    13
  9.5863929587181318E-01 a       644     1    10     2    14
 -4.3610891999627532E-02 a       645     1    10     2    15
  1.9435200516599986E+00 a       646     1    11     2     1
 -2.1865562807097718E+00 a       647     1    11     2     2
  1.1817349955078973E+00 a       648     1    11     2     3
 -2.0222817188654676E+00 a       649     1    11     2     4
  3.0214074456164477E+00 a       650     1    11     2     5
  1.6201095414617039E+00 a       651     1    11     2     6
  3.1875488525572599E+00 a       652     1    11     2     7
  6.6803003064611328E+00 a       653     1    11     2     8
  1.4393149743490521E+00 a       654     1    11     2     9
 -5.1737907133571586E+00 a       655     1    11     2    10
 -2.0060824787753364E+00 a       656     1    11     2    11
  1.6984872242097913E+00 a       657     1    11     2    12
 -1.8753784315166548E+00 a       658     1    11     2    13
  2.0715660536189842E+00 a       659     1    11     2    14
 -6.2870992246651070E-01 a       660     1    11     2    15
  2.7427216244348078E+00 a       661     1    12     2     1
 -6.5098666690145390E-01 a       662     1    12     2     2
 -1.9410941741830615E-01 a       663     1    12     2     3
  4.6542972853821913E+00 a       664     1    12     2     4
 -2.1878811479718037E+00 a       665     1    12     2     5
  1.4109806460020802E+00 a       666     1    12     2     6
 -3.3850678569792110E+00 a       667     1    12     2     7
  6.1575463576032152E-01 a       668     1    12     2     8
 -4.4730276326128786E+00 a       669     1    12     2     9
 -6.0579674515461146E-01 a       670     1    12     2    10
  5.5282944632603637E-01 a       671     1    12     2    11
  1.1560508927001423E+00 a       672     1    12     2    12
 -6.9896960138618702E-01 a       673     1    12     2    13
  2.5939706753357870E+00 a       674     1    12     2    14
 -4.3855864198783073E-01 a       675     1    12     2    15
  4.5220497176820560E+00 a       676     1    13     2     1
 -2.9501771898413426E-01 a       677     1    13     2     2
 -1.2568180065600596E+00 a       678     1    13     2     3
 -2.5428422858094263E-01 a       679     1    13     2     4
  4.2524045555752160E-01 a       680     1    13     2     5
 -5.6648145333630779E+00 a       681     1    13     2     6
 -4.3252474803466772E+00 a       682     1    13     2     7
 -1.3762758712366039E+00 a       683     1    13     2     8
  2.8591198670873759E+00 a       684     1    13     2     9
 -9.0151515917745453E+00 a       685     1    13     2    10
 -5.4710648088687774E-01 a       686     1    13     2    11
  3.2786128824742622E-01 a       687     1    13     2    12
  1.7199241750767942E+00 a       688     1    13     2    13
  2.3914041981754788E+00 a       689     1    13     2    14
  7.7625200677840525E+00 a       690     1    13     2    15
  2.1870988287569224E+00 a       691     1    14     2     1
 -1.2358825269412770E+00 a       692     1    14     2     2
  9.1562326405269123E-01 a       693     1    14     2     3
 -2.6673423141718073E+00 a       694     1    14     2     4
 -2.5390611608123397E+00 a       695     1    14     2     5
  1.8058689886477335E+00 a       696     1    14     2     6
 -7.7091633363298906E-01 a       697     1    14     2     7
 -1.7066213032852448E-01 a       698     1    14     2     8
 -4.1979402557811840E-01 a       699     1    14     2     9
 -1.9836959478369116E+00 a       700     1    14     2    10
 -2.7062552579531296E-01 a       701     1    14     2    11
  1.1310830301125259E+00 a       702     1    14     2    12
  5.8207975960288905E-01 a       703     1    14     2    13
 -2.1763578903021004E+00 a       704     1    14     2    14
  9.8676766399723614E-01 a       705     1    14     2    15
  4.5260336383837035E-01 a       706     1    15     2     1
  1.1869052585515025E+00 a       707     1    15     2     2
  2.3541988351930505E+00 a       708     1    15     2     3
 -1.5925640565268817E+00 a       709     1    15     2     4
 -2.3659371188893918E+00 a       710     1    15     2     5
 -3.1308654771937925E+00 a       711     1    15     2     6
 -1.4092331575784811E+00 a       712     1    15     2     7
 -3.4889134405793215E-01 a       713     1    15     2     8
 -2.3282068317475964E+00 a       714     1    15     2     9
  6.7911545666096709E-02 a       715     1    15     2    10
 -1.4122218154742541E-01 a       716     1    15     2    11
 -2.5062983759503723E+00 a       717     1    15     2    12
  1.5333064597184498E-01 a       718     1    15     2    13
  3.3765997076830878E-01 a       719     1    15     2    14
 -1.7580561956926680E-01 a       720     1    15     2    15
 -1.1944393790546176E+01 b       721     2     1
 -2.6667685927429741E+00 b       722     2     2
 -1.1519483466777665E+01 b       723     2     3
  7.7028517898378634E+00 b       724     2     4
 -8.1887605979816414E+00 b       725     2     5
 -5.9998393001486221E+00 b       726     2     6
  3.8226723767500514E+00 b       727     2     7
 -6.8191919844801854E+00 b       728     2     8
  5.5453473557305920E-02 b       729     2     9
 -3.6579199923098544E+00 b       730     2    10
 -9.9491393687733520E-01 b       731     2    11
  4.7809169015503272E+00 b       732     2    12
 -6.4735431892272901E+00 b       733     2    13
  4.8537077779443480E+00 b       734     2    14
 -4.4001868942420295E+00 b       735     2    15
 -2.0603261854875949E-02 a       736     2     1     3     1
  9.2507277001642851E-02 a       737     2     2     3     1
  1.7582859195080139E-02 a       738     2     3     3     1
  4.2011441278384395E-02 a       739     2     4     3     1
  6.8345117724549653E-02 a       740     2     5     3     1
  7.5323681219461036E-02 a       741     2     6     3     1
 -5.7510032714040170E-02 a       742     2     7     3     1
  1.4475248249676248E-02 a       743     2     8     3     1
  5.7436903341320312E-03 a       744     2     9     3     1
 -3.1565532860099464E-02 a       745     2    10     3     1
 -5.2929324570169578E-02 a       746     2    11     3     1
  7.0658991510113333E-03 a       747     2    12     3     1
  3.5064260367855230E-03 a       748     2    13     3     1
  5.8754092841826602E-02 a       749     2    14     3     1
  8.8729470697131076E-03 a       750     2    15     3     1
 -3.3828852835675322E-01 b       751     3     1
